{
    "layers": [
        {
            "W": [
                [
                    1.5101253946116528,
                    -1.5101191969416052
                ],
                [
                    -1.5101480179420097,
                    1.5101110833974323
                ],
                [
                    -1.9510351886538364,
                    -1.302179506862318
                ],
                [
                    0.05032598283262659,
                    -0.3162425923435822
                ]
            ],
            "b": [
                -1.8842220605779307e-05,
                -3.3142152317708565e-05,
                -0.0010116458807845094,
                -0.05269519244583756
            ],
            "activation": "relu"
        },
        {
            "W": [
                [
                    0.2540118296109162,
                    -0.7325249554416622,
                    0.530626482848102,
                    0.6650359767370172
                ],
                [
                    -1.379578687206531,
                    -1.0491793548825297,
                    0.09039681598920968,
                    -0.22361728154615995
                ],
                [
                    -0.012070325322043796,
                    -0.603293891687171,
                    0.6217724803521274,
                    0.5499121043559039
                ],
                [
                    1.8317469540878104,
                    1.86861066700693,
                    0.33050947842157535,
                    -0.598290433715449
                ]
            ],
            "b": [
                -5.116264644573376e-07,
                1.6624876236368227,
                -0.0013463590684726647,
                -8.537797242177504e-06
            ],
            "activation": "relu"
        },
        {
            "W": [
                [
                    0.19210956720624894,
                    -1.8126318689711156,
                    0.37502485196442215,
                    2.5319100980862554
                ]
            ],
            "b": -1.7181300380093143,
            "activation": "sigmoid"
        }
    ],
    "lr": 0.5,
    "layer_sizes": [
        2,
        4,
        4,
        1
    ]
}